digraph Tree {
node [shape=box, style="filled, rounded", color="black", fontname="helvetica"] ;
edge [fontname="helvetica"] ;
0 [label="x[1] <= -0.856\ngini = 0.371\nsamples = 108\nvalue = [132, 43]", fillcolor="#edaa79"] ;
1 [label="x[1] <= -1.06\ngini = 0.469\nsamples = 5\nvalue = [3, 5]", fillcolor="#b0d8f5"] ;
0 -> 1 [labeldistance=2.5, labelangle=45, headlabel="True"] ;
2 [label="gini = 0.0\nsamples = 2\nvalue = [2, 0]", fillcolor="#e58139"] ;
1 -> 2 ;
3 [label="x[1] <= -0.934\ngini = 0.278\nsamples = 3\nvalue = [1, 5]", fillcolor="#61b1ea"] ;
1 -> 3 ;
4 [label="x[1] <= -0.985\ngini = 0.444\nsamples = 2\nvalue = [1, 2]", fillcolor="#9ccef2"] ;
3 -> 4 ;
5 [label="gini = 0.0\nsamples = 1\nvalue = [0, 2]", fillcolor="#399de5"] ;
4 -> 5 ;
6 [label="gini = 0.0\nsamples = 1\nvalue = [1, 0]", fillcolor="#e58139"] ;
4 -> 6 ;
7 [label="gini = 0.0\nsamples = 1\nvalue = [0, 3]", fillcolor="#399de5"] ;
3 -> 7 ;
8 [label="x[0] <= 0.354\ngini = 0.352\nsamples = 103\nvalue = [129, 38]", fillcolor="#eda673"] ;
0 -> 8 [labeldistance=2.5, labelangle=-45, headlabel="False"] ;
9 [label="gini = 0.0\nsamples = 78\nvalue = [129, 0]", fillcolor="#e58139"] ;
8 -> 9 ;
10 [label="gini = 0.0\nsamples = 25\nvalue = [0, 38]", fillcolor="#399de5"] ;
8 -> 10 ;
}